[array([[-5.59418921e-001,  5.68105385e+000,  3.46751235e-001,
         1.86789661e-191, -1.98833942e+000, -4.46480581e-001,
        -9.32164878e-169, -1.34262509e-001,  1.33698637e-001,
         2.01027369e+000, -1.11078127e-217,  7.07340485e+000,
         8.41761117e-172,  2.03528446e+000,  4.20290993e-001,
        -1.63419267e-197],
       [ 1.20408795e+000,  1.45136443e+000,  9.76418092e-001,
        -1.12745754e-170,  1.91922139e+000,  1.45782895e+000,
        -6.42633031e-194,  9.59700165e-001,  1.11916115e+000,
         1.57075215e+000, -2.94658617e-152, -3.34198642e+000,
         9.66679560e-166,  1.31832568e+000, -2.06059725e+000,
         1.75487135e-218]]), array([[-2.54884246e-001,  3.74398549e-169, -1.66044117e-152,
        -3.47973049e-002, -4.72585411e-001,  8.10771533e-001,
        -1.01561042e-001, -1.64428059e-156],
       [-2.14019684e-001,  6.15562924e-170, -2.15918750e-218,
         7.47343693e+000,  7.10978591e+000,  6.05545211e+000,
         1.06349417e-001,  3.57778216e-219],
       [-2.74705701e+000,  3.42393478e-226,  5.54175040e-204,
        -1.69943972e-002,  2.60638831e-001,  1.17596739e+000,
         2.17795792e-001, -8.33412683e-169],
       [-9.18990343e-169, -2.50811767e-177, -3.48223846e-216,
        -6.53259304e-173,  3.29583642e-159,  5.99732666e-207,
         3.05749116e-187,  3.56764791e-192],
       [ 1.61973781e+000, -4.23656131e-212,  3.29629181e-187,
        -1.78189037e+000, -1.78890484e+000,  2.52172851e+000,
        -1.77703652e-001, -4.75974455e-156],
       [-4.24856004e-001, -1.01683236e-212, -3.70179026e-165,
         2.50047754e-001, -1.27643010e-001,  1.12509924e+000,
        -1.92286425e-001, -2.98275879e-186],
       [ 5.94400978e-163,  1.34502227e-222, -3.58525783e-150,
        -3.93624455e-213,  3.55631809e-202,  3.06899610e-227,
         5.56907627e-165, -1.09148978e-208],
       [-4.91763770e-001, -5.08826590e-212,  1.53023443e-151,
         5.13347576e-001,  4.28724467e-001,  1.30351001e+000,
        -4.34280951e-001, -6.35216117e-169],
       [-3.30331943e-001, -1.63414142e-197,  1.00281498e-158,
         5.99470244e-001,  7.07202364e-001,  9.97026299e-001,
         1.09036296e-001, -7.04991970e-167],
       [-3.23257913e+000, -2.36039185e-153,  2.10520988e-153,
        -5.95411026e-002,  9.79315264e-001,  3.81577910e-001,
        -5.26470724e-002, -1.11589781e-171],
       [-6.50135738e-167,  7.36841267e-193, -4.05177814e-219,
        -2.24775672e-153, -7.77105078e-223, -1.33274802e-154,
         1.66105971e-178,  1.48105983e-184],
       [-2.16330902e+000,  3.16101271e-214, -1.94788532e-170,
        -4.54832129e+000, -4.04888313e+000, -7.02168421e+000,
        -4.82127303e-001,  4.04619449e-166],
       [ 1.58552600e-155,  4.85288551e-164,  4.08484233e-183,
        -1.88314547e-194, -3.65370072e-223,  3.54753242e-151,
        -4.81479936e-159, -9.43019837e-154],
       [-3.21399022e+000,  3.79858738e-179,  6.24552015e-188,
         4.74998659e-001,  5.91226416e-001,  4.26979011e-001,
         3.62862124e-001,  5.72903947e-171],
       [ 2.86625633e+000,  3.00939395e-229,  1.35604237e-212,
         1.67395024e+000, -5.28749140e-002, -2.75650442e+000,
        -4.95416402e-001, -1.84072673e-228],
       [-3.32463256e-215, -4.63799837e-223,  1.11583830e-200,
        -2.82076252e-151, -8.10520464e-220, -1.29639822e-212,
        -4.09655966e-224, -2.02622064e-188]]), array([[-4.32607544e+000],
       [ 2.59915637e-150],
       [ 1.44939016e-149],
       [ 4.93008226e+000],
       [ 4.60747737e+000],
       [ 5.88102834e+000],
       [-3.23551018e-001],
       [ 9.76717628e-129]])]